{
  "feature": [
    1,
    2,
    0,
    -2,
    -2,
    1,
    -2,
    -2,
    -2
  ],
  "threshold": [
    113.5,
    140.5,
    195.5,
    -2.0,
    -2.0,
    81.0,
    -2.0,
    -2.0,
    -2.0
  ],
  "children_left": [
    1,
    2,
    3,
    -1,
    -1,
    6,
    -1,
    -1,
    -1
  ],
  "children_right": [
    8,
    5,
    4,
    -1,
    -1,
    7,
    -1,
    -1,
    -1
  ],
  "value": [
    [
      [
        0.6956521739130435,
        0.30434782608695654
      ]
    ],
    [
      [
        0.42857142857142855,
        0.5714285714285714
      ]
    ],
    [
      [
        0.20588235294117646,
        0.7941176470588235
      ]
    ],
    [
      [
        0.12903225806451613,
        0.8709677419354839
      ]
    ],
    [
      [
        1.0,
        0.0
      ]
    ],
    [
      [
        0.9333333333333333,
        0.06666666666666667
      ]
    ],
    [
      [
        0.8,
        0.2
      ]
    ],
    [
      [
        1.0,
        0.0
      ]
    ],
    [
      [
        1.0,
        0.0
      ]
    ]
  ]
}